digraph Tree {
node [shape=box] ;
0 [label="X[0] <= 2.5\nentropy = 1.314\nsamples = 468\nvalue = [36, 215, 217]"] ;
1 [label="X[3] <= 2.5\nentropy = 1.132\nsamples = 187\nvalue = [14, 43, 130]"] ;
0 -> 1 [labeldistance=2.5, labelangle=45, headlabel="True"] ;
2 [label="X[2] <= 1.5\nentropy = 1.455\nsamples = 68\nvalue = [10, 28, 30]"] ;
1 -> 2 ;
3 [label="X[1] <= 2.5\nentropy = 0.65\nsamples = 12\nvalue = [2, 10, 0]"] ;
2 -> 3 ;
4 [label="X[3] <= 1.5\nentropy = 0.971\nsamples = 5\nvalue = [2, 3, 0]"] ;
3 -> 4 ;
5 [label="entropy = 0.0\nsamples = 2\nvalue = [0, 2, 0]"] ;
4 -> 5 ;
6 [label="X[1] <= 1.5\nentropy = 0.918\nsamples = 3\nvalue = [2, 1, 0]"] ;
4 -> 6 ;
7 [label="entropy = 0.0\nsamples = 1\nvalue = [1, 0, 0]"] ;
6 -> 7 ;
8 [label="X[0] <= 1.5\nentropy = 1.0\nsamples = 2\nvalue = [1, 1, 0]"] ;
6 -> 8 ;
9 [label="entropy = 0.0\nsamples = 1\nvalue = [1, 0, 0]"] ;
8 -> 9 ;
10 [label="entropy = 0.0\nsamples = 1\nvalue = [0, 1, 0]"] ;
8 -> 10 ;
11 [label="entropy = 0.0\nsamples = 7\nvalue = [0, 7, 0]"] ;
3 -> 11 ;
12 [label="X[1] <= 2.5\nentropy = 1.41\nsamples = 56\nvalue = [8, 18, 30]"] ;
2 -> 12 ;
13 [label="X[2] <= 2.5\nentropy = 0.808\nsamples = 23\nvalue = [3, 1, 19]"] ;
12 -> 13 ;
14 [label="X[0] <= 1.5\nentropy = 0.985\nsamples = 7\nvalue = [3, 0, 4]"] ;
13 -> 14 ;
15 [label="X[1] <= 1.5\nentropy = 0.811\nsamples = 4\nvalue = [1, 0, 3]"] ;
14 -> 15 ;
16 [label="entropy = 0.0\nsamples = 2\nvalue = [0, 0, 2]"] ;
15 -> 16 ;
17 [label="X[3] <= 1.5\nentropy = 1.0\nsamples = 2\nvalue = [1, 0, 1]"] ;
15 -> 17 ;
18 [label="entropy = 0.0\nsamples = 1\nvalue = [1, 0, 0]"] ;
17 -> 18 ;
19 [label="entropy = 0.0\nsamples = 1\nvalue = [0, 0, 1]"] ;
17 -> 19 ;
20 [label="X[3] <= 1.5\nentropy = 0.918\nsamples = 3\nvalue = [2, 0, 1]"] ;
14 -> 20 ;
21 [label="entropy = 0.0\nsamples = 1\nvalue = [1, 0, 0]"] ;
20 -> 21 ;
22 [label="X[1] <= 1.5\nentropy = 1.0\nsamples = 2\nvalue = [1, 0, 1]"] ;
20 -> 22 ;
23 [label="entropy = 0.0\nsamples = 1\nvalue = [0, 0, 1]"] ;
22 -> 23 ;
24 [label="entropy = 0.0\nsamples = 1\nvalue = [1, 0, 0]"] ;
22 -> 24 ;
25 [label="X[2] <= 3.5\nentropy = 0.337\nsamples = 16\nvalue = [0, 1, 15]"] ;
13 -> 25 ;
26 [label="X[3] <= 1.5\nentropy = 0.722\nsamples = 5\nvalue = [0, 1, 4]"] ;
25 -> 26 ;
27 [label="X[1] <= 1.5\nentropy = 1.0\nsamples = 2\nvalue = [0, 1, 1]"] ;
26 -> 27 ;
28 [label="entropy = 0.0\nsamples = 1\nvalue = [0, 0, 1]"] ;
27 -> 28 ;
29 [label="entropy = 0.0\nsamples = 1\nvalue = [0, 1, 0]"] ;
27 -> 29 ;
30 [label="entropy = 0.0\nsamples = 3\nvalue = [0, 0, 3]"] ;
26 -> 30 ;
31 [label="entropy = 0.0\nsamples = 11\nvalue = [0, 0, 11]"] ;
25 -> 31 ;
32 [label="X[3] <= 1.5\nentropy = 1.434\nsamples = 33\nvalue = [5, 17, 11]"] ;
12 -> 32 ;
33 [label="X[0] <= 1.5\nentropy = 0.906\nsamples = 15\nvalue = [2, 12, 1]"] ;
32 -> 33 ;
34 [label="X[2] <= 4.5\nentropy = 1.379\nsamples = 7\nvalue = [2, 4, 1]"] ;
33 -> 34 ;
35 [label="X[2] <= 2.5\nentropy = 0.722\nsamples = 5\nvalue = [1, 4, 0]"] ;
34 -> 35 ;
36 [label="entropy = 0.0\nsamples = 3\nvalue = [0, 3, 0]"] ;
35 -> 36 ;
37 [label="X[2] <= 3.5\nentropy = 1.0\nsamples = 2\nvalue = [1, 1, 0]"] ;
35 -> 37 ;
38 [label="entropy = 0.0\nsamples = 1\nvalue = [1, 0, 0]"] ;
37 -> 38 ;
39 [label="entropy = 0.0\nsamples = 1\nvalue = [0, 1, 0]"] ;
37 -> 39 ;
40 [label="X[1] <= 4.5\nentropy = 1.0\nsamples = 2\nvalue = [1, 0, 1]"] ;
34 -> 40 ;
41 [label="entropy = 0.0\nsamples = 1\nvalue = [0, 0, 1]"] ;
40 -> 41 ;
42 [label="entropy = 0.0\nsamples = 1\nvalue = [1, 0, 0]"] ;
40 -> 42 ;
43 [label="entropy = 0.0\nsamples = 8\nvalue = [0, 8, 0]"] ;
33 -> 43 ;
44 [label="X[0] <= 1.5\nentropy = 1.415\nsamples = 18\nvalue = [3, 5, 10]"] ;
32 -> 44 ;
45 [label="X[2] <= 2.5\nentropy = 0.503\nsamples = 9\nvalue = [0, 1, 8]"] ;
44 -> 45 ;
46 [label="X[1] <= 4.0\nentropy = 1.0\nsamples = 2\nvalue = [0, 1, 1]"] ;
45 -> 46 ;
47 [label="entropy = 0.0\nsamples = 1\nvalue = [0, 0, 1]"] ;
46 -> 47 ;
48 [label="entropy = 0.0\nsamples = 1\nvalue = [0, 1, 0]"] ;
46 -> 48 ;
49 [label="entropy = 0.0\nsamples = 7\nvalue = [0, 0, 7]"] ;
45 -> 49 ;
50 [label="X[2] <= 4.5\nentropy = 1.53\nsamples = 9\nvalue = [3, 4, 2]"] ;
44 -> 50 ;
51 [label="X[1] <= 4.5\nentropy = 0.918\nsamples = 6\nvalue = [2, 4, 0]"] ;
50 -> 51 ;
52 [label="X[2] <= 2.5\nentropy = 1.0\nsamples = 4\nvalue = [2, 2, 0]"] ;
51 -> 52 ;
53 [label="entropy = 0.0\nsamples = 1\nvalue = [0, 1, 0]"] ;
52 -> 53 ;
54 [label="X[1] <= 3.5\nentropy = 0.918\nsamples = 3\nvalue = [2, 1, 0]"] ;
52 -> 54 ;
55 [label="entropy = 0.0\nsamples = 1\nvalue = [1, 0, 0]"] ;
54 -> 55 ;
56 [label="X[2] <= 3.5\nentropy = 1.0\nsamples = 2\nvalue = [1, 1, 0]"] ;
54 -> 56 ;
57 [label="entropy = 0.0\nsamples = 1\nvalue = [0, 1, 0]"] ;
56 -> 57 ;
58 [label="entropy = 0.0\nsamples = 1\nvalue = [1, 0, 0]"] ;
56 -> 58 ;
59 [label="entropy = 0.0\nsamples = 2\nvalue = [0, 2, 0]"] ;
51 -> 59 ;
60 [label="X[1] <= 4.5\nentropy = 0.918\nsamples = 3\nvalue = [1, 0, 2]"] ;
50 -> 60 ;
61 [label="entropy = 0.0\nsamples = 2\nvalue = [0, 0, 2]"] ;
60 -> 61 ;
62 [label="entropy = 0.0\nsamples = 1\nvalue = [1, 0, 0]"] ;
60 -> 62 ;
63 [label="X[2] <= 2.5\nentropy = 0.752\nsamples = 119\nvalue = [4, 15, 100]"] ;
1 -> 63 ;
64 [label="X[1] <= 3.5\nentropy = 1.229\nsamples = 49\nvalue = [4, 14, 31]"] ;
63 -> 64 ;
65 [label="X[2] <= 1.5\nentropy = 0.812\nsamples = 30\nvalue = [2, 3, 25]"] ;
64 -> 65 ;
66 [label="X[0] <= 1.5\nentropy = 1.199\nsamples = 16\nvalue = [2, 3, 11]"] ;
65 -> 66 ;
67 [label="X[3] <= 3.5\nentropy = 0.503\nsamples = 9\nvalue = [1, 0, 8]"] ;
66 -> 67 ;
68 [label="X[1] <= 2.5\nentropy = 0.918\nsamples = 3\nvalue = [1, 0, 2]"] ;
67 -> 68 ;
69 [label="entropy = 0.0\nsamples = 2\nvalue = [0, 0, 2]"] ;
68 -> 69 ;
70 [label="entropy = 0.0\nsamples = 1\nvalue = [1, 0, 0]"] ;
68 -> 70 ;
71 [label="entropy = 0.0\nsamples = 6\nvalue = [0, 0, 6]"] ;
67 -> 71 ;
72 [label="X[1] <= 1.5\nentropy = 1.449\nsamples = 7\nvalue = [1, 3, 3]"] ;
66 -> 72 ;
73 [label="entropy = 0.0\nsamples = 3\nvalue = [0, 0, 3]"] ;
72 -> 73 ;
74 [label="X[3] <= 3.5\nentropy = 0.811\nsamples = 4\nvalue = [1, 3, 0]"] ;
72 -> 74 ;
75 [label="entropy = 0.0\nsamples = 2\nvalue = [0, 2, 0]"] ;
74 -> 75 ;
76 [label="X[1] <= 2.5\nentropy = 1.0\nsamples = 2\nvalue = [1, 1, 0]"] ;
74 -> 76 ;
77 [label="entropy = 0.0\nsamples = 1\nvalue = [1, 0, 0]"] ;
76 -> 77 ;
78 [label="entropy = 0.0\nsamples = 1\nvalue = [0, 1, 0]"] ;
76 -> 78 ;
79 [label="entropy = 0.0\nsamples = 14\nvalue = [0, 0, 14]"] ;
65 -> 79 ;
80 [label="X[0] <= 1.5\nentropy = 1.324\nsamples = 19\nvalue = [2, 11, 6]"] ;
64 -> 80 ;
81 [label="X[2] <= 1.5\nentropy = 1.295\nsamples = 10\nvalue = [1, 3, 6]"] ;
80 -> 81 ;
82 [label="X[3] <= 4.5\nentropy = 1.371\nsamples = 5\nvalue = [1, 3, 1]"] ;
81 -> 82 ;
83 [label="entropy = 0.0\nsamples = 3\nvalue = [0, 3, 0]"] ;
82 -> 83 ;
84 [label="X[1] <= 4.5\nentropy = 1.0\nsamples = 2\nvalue = [1, 0, 1]"] ;
82 -> 84 ;
85 [label="entropy = 0.0\nsamples = 1\nvalue = [0, 0, 1]"] ;
84 -> 85 ;
86 [label="entropy = 0.0\nsamples = 1\nvalue = [1, 0, 0]"] ;
84 -> 86 ;
87 [label="entropy = 0.0\nsamples = 5\nvalue = [0, 0, 5]"] ;
81 -> 87 ;
88 [label="X[2] <= 1.5\nentropy = 0.503\nsamples = 9\nvalue = [1, 8, 0]"] ;
80 -> 88 ;
89 [label="entropy = 0.0\nsamples = 5\nvalue = [0, 5, 0]"] ;
88 -> 89 ;
90 [label="X[1] <= 4.5\nentropy = 0.811\nsamples = 4\nvalue = [1, 3, 0]"] ;
88 -> 90 ;
91 [label="X[3] <= 3.5\nentropy = 1.0\nsamples = 2\nvalue = [1, 1, 0]"] ;
90 -> 91 ;
92 [label="entropy = 0.0\nsamples = 1\nvalue = [0, 1, 0]"] ;
91 -> 92 ;
93 [label="entropy = 0.0\nsamples = 1\nvalue = [1, 0, 0]"] ;
91 -> 93 ;
94 [label="entropy = 0.0\nsamples = 2\nvalue = [0, 2, 0]"] ;
90 -> 94 ;
95 [label="X[1] <= 4.5\nentropy = 0.108\nsamples = 70\nvalue = [0, 1, 69]"] ;
63 -> 95 ;
96 [label="entropy = 0.0\nsamples = 54\nvalue = [0, 0, 54]"] ;
95 -> 96 ;
97 [label="X[2] <= 3.5\nentropy = 0.337\nsamples = 16\nvalue = [0, 1, 15]"] ;
95 -> 97 ;
98 [label="X[3] <= 3.5\nentropy = 0.722\nsamples = 5\nvalue = [0, 1, 4]"] ;
97 -> 98 ;
99 [label="X[0] <= 1.5\nentropy = 1.0\nsamples = 2\nvalue = [0, 1, 1]"] ;
98 -> 99 ;
100 [label="entropy = 0.0\nsamples = 1\nvalue = [0, 0, 1]"] ;
99 -> 100 ;
101 [label="entropy = 0.0\nsamples = 1\nvalue = [0, 1, 0]"] ;
99 -> 101 ;
102 [label="entropy = 0.0\nsamples = 3\nvalue = [0, 0, 3]"] ;
98 -> 102 ;
103 [label="entropy = 0.0\nsamples = 11\nvalue = [0, 0, 11]"] ;
97 -> 103 ;
104 [label="X[3] <= 2.5\nentropy = 1.245\nsamples = 281\nvalue = [22, 172, 87]"] ;
0 -> 104 [labeldistance=2.5, labelangle=-45, headlabel="False"] ;
105 [label="X[1] <= 1.5\nentropy = 0.66\nsamples = 110\nvalue = [4, 96, 10]"] ;
104 -> 105 ;
106 [label="X[2] <= 2.5\nentropy = 1.437\nsamples = 22\nvalue = [3, 10, 9]"] ;
105 -> 106 ;
107 [label="X[0] <= 3.5\nentropy = 0.986\nsamples = 9\nvalue = [1, 7, 1]"] ;
106 -> 107 ;
108 [label="X[3] <= 1.5\nentropy = 1.0\nsamples = 2\nvalue = [0, 1, 1]"] ;
107 -> 108 ;
109 [label="entropy = 0.0\nsamples = 1\nvalue = [0, 1, 0]"] ;
108 -> 109 ;
110 [label="entropy = 0.0\nsamples = 1\nvalue = [0, 0, 1]"] ;
108 -> 110 ;
111 [label="X[2] <= 1.5\nentropy = 0.592\nsamples = 7\nvalue = [1, 6, 0]"] ;
107 -> 111 ;
112 [label="entropy = 0.0\nsamples = 4\nvalue = [0, 4, 0]"] ;
111 -> 112 ;
113 [label="X[0] <= 4.5\nentropy = 0.918\nsamples = 3\nvalue = [1, 2, 0]"] ;
111 -> 113 ;
114 [label="X[3] <= 1.5\nentropy = 1.0\nsamples = 2\nvalue = [1, 1, 0]"] ;
113 -> 114 ;
115 [label="entropy = 0.0\nsamples = 1\nvalue = [0, 1, 0]"] ;
114 -> 115 ;
116 [label="entropy = 0.0\nsamples = 1\nvalue = [1, 0, 0]"] ;
114 -> 116 ;
117 [label="entropy = 0.0\nsamples = 1\nvalue = [0, 1, 0]"] ;
113 -> 117 ;
118 [label="X[3] <= 1.5\nentropy = 1.335\nsamples = 13\nvalue = [2, 3, 8]"] ;
106 -> 118 ;
119 [label="X[2] <= 3.5\nentropy = 1.557\nsamples = 7\nvalue = [2, 3, 2]"] ;
118 -> 119 ;
120 [label="X[0] <= 3.5\nentropy = 0.918\nsamples = 3\nvalue = [1, 2, 0]"] ;
119 -> 120 ;
121 [label="entropy = 0.0\nsamples = 1\nvalue = [1, 0, 0]"] ;
120 -> 121 ;
122 [label="entropy = 0.0\nsamples = 2\nvalue = [0, 2, 0]"] ;
120 -> 122 ;
123 [label="X[0] <= 4.5\nentropy = 1.5\nsamples = 4\nvalue = [1, 1, 2]"] ;
119 -> 123 ;
124 [label="entropy = 0.0\nsamples = 2\nvalue = [0, 0, 2]"] ;
123 -> 124 ;
125 [label="X[2] <= 4.5\nentropy = 1.0\nsamples = 2\nvalue = [1, 1, 0]"] ;
123 -> 125 ;
126 [label="entropy = 0.0\nsamples = 1\nvalue = [0, 1, 0]"] ;
125 -> 126 ;
127 [label="entropy = 0.0\nsamples = 1\nvalue = [1, 0, 0]"] ;
125 -> 127 ;
128 [label="entropy = 0.0\nsamples = 6\nvalue = [0, 0, 6]"] ;
118 -> 128 ;
129 [label="X[1] <= 2.5\nentropy = 0.179\nsamples = 88\nvalue = [1, 86, 1]"] ;
105 -> 129 ;
130 [label="X[2] <= 4.5\nentropy = 0.669\nsamples = 16\nvalue = [1, 14, 1]"] ;
129 -> 130 ;
131 [label="X[2] <= 3.5\nentropy = 0.371\nsamples = 14\nvalue = [1, 13, 0]"] ;
130 -> 131 ;
132 [label="entropy = 0.0\nsamples = 10\nvalue = [0, 10, 0]"] ;
131 -> 132 ;
133 [label="X[3] <= 1.5\nentropy = 0.811\nsamples = 4\nvalue = [1, 3, 0]"] ;
131 -> 133 ;
134 [label="entropy = 0.0\nsamples = 3\nvalue = [0, 3, 0]"] ;
133 -> 134 ;
135 [label="entropy = 0.0\nsamples = 1\nvalue = [1, 0, 0]"] ;
133 -> 135 ;
136 [label="X[0] <= 3.5\nentropy = 1.0\nsamples = 2\nvalue = [0, 1, 1]"] ;
130 -> 136 ;
137 [label="entropy = 0.0\nsamples = 1\nvalue = [0, 1, 0]"] ;
136 -> 137 ;
138 [label="entropy = 0.0\nsamples = 1\nvalue = [0, 0, 1]"] ;
136 -> 138 ;
139 [label="entropy = 0.0\nsamples = 72\nvalue = [0, 72, 0]"] ;
129 -> 139 ;
140 [label="X[2] <= 2.5\nentropy = 1.38\nsamples = 171\nvalue = [18, 76, 77]"] ;
104 -> 140 ;
141 [label="X[1] <= 2.5\nentropy = 0.972\nsamples = 65\nvalue = [4, 50, 11]"] ;
140 -> 141 ;
142 [label="X[2] <= 1.5\nentropy = 1.447\nsamples = 27\nvalue = [4, 13, 10]"] ;
141 -> 142 ;
143 [label="X[1] <= 1.5\nentropy = 0.65\nsamples = 12\nvalue = [2, 10, 0]"] ;
142 -> 143 ;
144 [label="X[3] <= 4.5\nentropy = 0.971\nsamples = 5\nvalue = [2, 3, 0]"] ;
143 -> 144 ;
145 [label="X[0] <= 3.5\nentropy = 0.811\nsamples = 4\nvalue = [1, 3, 0]"] ;
144 -> 145 ;
146 [label="entropy = 0.0\nsamples = 1\nvalue = [1, 0, 0]"] ;
145 -> 146 ;
147 [label="entropy = 0.0\nsamples = 3\nvalue = [0, 3, 0]"] ;
145 -> 147 ;
148 [label="entropy = 0.0\nsamples = 1\nvalue = [1, 0, 0]"] ;
144 -> 148 ;
149 [label="entropy = 0.0\nsamples = 7\nvalue = [0, 7, 0]"] ;
143 -> 149 ;
150 [label="X[1] <= 1.5\nentropy = 1.242\nsamples = 15\nvalue = [2, 3, 10]"] ;
142 -> 150 ;
151 [label="entropy = 0.0\nsamples = 7\nvalue = [0, 0, 7]"] ;
150 -> 151 ;
152 [label="X[0] <= 3.5\nentropy = 1.561\nsamples = 8\nvalue = [2, 3, 3]"] ;
150 -> 152 ;
153 [label="X[3] <= 3.5\nentropy = 0.918\nsamples = 3\nvalue = [1, 0, 2]"] ;
152 -> 153 ;
154 [label="entropy = 0.0\nsamples = 1\nvalue = [1, 0, 0]"] ;
153 -> 154 ;
155 [label="entropy = 0.0\nsamples = 2\nvalue = [0, 0, 2]"] ;
153 -> 155 ;
156 [label="X[3] <= 4.5\nentropy = 1.371\nsamples = 5\nvalue = [1, 3, 1]"] ;
152 -> 156 ;
157 [label="entropy = 0.0\nsamples = 3\nvalue = [0, 3, 0]"] ;
156 -> 157 ;
158 [label="X[0] <= 4.5\nentropy = 1.0\nsamples = 2\nvalue = [1, 0, 1]"] ;
156 -> 158 ;
159 [label="entropy = 0.0\nsamples = 1\nvalue = [0, 0, 1]"] ;
158 -> 159 ;
160 [label="entropy = 0.0\nsamples = 1\nvalue = [1, 0, 0]"] ;
158 -> 160 ;
161 [label="X[3] <= 4.5\nentropy = 0.176\nsamples = 38\nvalue = [0, 37, 1]"] ;
141 -> 161 ;
162 [label="entropy = 0.0\nsamples = 26\nvalue = [0, 26, 0]"] ;
161 -> 162 ;
163 [label="X[1] <= 3.5\nentropy = 0.414\nsamples = 12\nvalue = [0, 11, 1]"] ;
161 -> 163 ;
164 [label="X[0] <= 3.5\nentropy = 0.918\nsamples = 3\nvalue = [0, 2, 1]"] ;
163 -> 164 ;
165 [label="entropy = 0.0\nsamples = 1\nvalue = [0, 0, 1]"] ;
164 -> 165 ;
166 [label="entropy = 0.0\nsamples = 2\nvalue = [0, 2, 0]"] ;
164 -> 166 ;
167 [label="entropy = 0.0\nsamples = 9\nvalue = [0, 9, 0]"] ;
163 -> 167 ;
168 [label="X[1] <= 2.5\nentropy = 1.309\nsamples = 106\nvalue = [14, 26, 66]"] ;
140 -> 168 ;
169 [label="X[0] <= 4.5\nentropy = 0.172\nsamples = 39\nvalue = [0, 1, 38]"] ;
168 -> 169 ;
170 [label="entropy = 0.0\nsamples = 26\nvalue = [0, 0, 26]"] ;
169 -> 170 ;
171 [label="X[3] <= 3.5\nentropy = 0.391\nsamples = 13\nvalue = [0, 1, 12]"] ;
169 -> 171 ;
172 [label="X[2] <= 3.5\nentropy = 0.811\nsamples = 4\nvalue = [0, 1, 3]"] ;
171 -> 172 ;
173 [label="entropy = 0.0\nsamples = 1\nvalue = [0, 1, 0]"] ;
172 -> 173 ;
174 [label="entropy = 0.0\nsamples = 3\nvalue = [0, 0, 3]"] ;
172 -> 174 ;
175 [label="entropy = 0.0\nsamples = 9\nvalue = [0, 0, 9]"] ;
171 -> 175 ;
176 [label="X[3] <= 3.5\nentropy = 1.529\nsamples = 67\nvalue = [14, 25, 28]"] ;
168 -> 176 ;
177 [label="X[1] <= 3.5\nentropy = 1.274\nsamples = 26\nvalue = [5, 17, 4]"] ;
176 -> 177 ;
178 [label="X[0] <= 3.5\nentropy = 1.585\nsamples = 9\nvalue = [3, 3, 3]"] ;
177 -> 178 ;
179 [label="X[2] <= 3.5\nentropy = 0.918\nsamples = 3\nvalue = [1, 0, 2]"] ;
178 -> 179 ;
180 [label="entropy = 0.0\nsamples = 1\nvalue = [1, 0, 0]"] ;
179 -> 180 ;
181 [label="entropy = 0.0\nsamples = 2\nvalue = [0, 0, 2]"] ;
179 -> 181 ;
182 [label="X[2] <= 4.5\nentropy = 1.459\nsamples = 6\nvalue = [2, 3, 1]"] ;
178 -> 182 ;
183 [label="X[0] <= 4.5\nentropy = 0.811\nsamples = 4\nvalue = [1, 3, 0]"] ;
182 -> 183 ;
184 [label="X[2] <= 3.5\nentropy = 1.0\nsamples = 2\nvalue = [1, 1, 0]"] ;
183 -> 184 ;
185 [label="entropy = 0.0\nsamples = 1\nvalue = [0, 1, 0]"] ;
184 -> 185 ;
186 [label="entropy = 0.0\nsamples = 1\nvalue = [1, 0, 0]"] ;
184 -> 186 ;
187 [label="entropy = 0.0\nsamples = 2\nvalue = [0, 2, 0]"] ;
183 -> 187 ;
188 [label="X[0] <= 4.5\nentropy = 1.0\nsamples = 2\nvalue = [1, 0, 1]"] ;
182 -> 188 ;
189 [label="entropy = 0.0\nsamples = 1\nvalue = [0, 0, 1]"] ;
188 -> 189 ;
190 [label="entropy = 0.0\nsamples = 1\nvalue = [1, 0, 0]"] ;
188 -> 190 ;
191 [label="X[0] <= 3.5\nentropy = 0.834\nsamples = 17\nvalue = [2, 14, 1]"] ;
177 -> 191 ;
192 [label="X[2] <= 4.5\nentropy = 1.459\nsamples = 6\nvalue = [2, 3, 1]"] ;
191 -> 192 ;
193 [label="X[1] <= 4.5\nentropy = 0.811\nsamples = 4\nvalue = [1, 3, 0]"] ;
192 -> 193 ;
194 [label="X[2] <= 3.5\nentropy = 1.0\nsamples = 2\nvalue = [1, 1, 0]"] ;
193 -> 194 ;
195 [label="entropy = 0.0\nsamples = 1\nvalue = [0, 1, 0]"] ;
194 -> 195 ;
196 [label="entropy = 0.0\nsamples = 1\nvalue = [1, 0, 0]"] ;
194 -> 196 ;
197 [label="entropy = 0.0\nsamples = 2\nvalue = [0, 2, 0]"] ;
193 -> 197 ;
198 [label="X[1] <= 4.5\nentropy = 1.0\nsamples = 2\nvalue = [1, 0, 1]"] ;
192 -> 198 ;
199 [label="entropy = 0.0\nsamples = 1\nvalue = [0, 0, 1]"] ;
198 -> 199 ;
200 [label="entropy = 0.0\nsamples = 1\nvalue = [1, 0, 0]"] ;
198 -> 200 ;
201 [label="entropy = 0.0\nsamples = 11\nvalue = [0, 11, 0]"] ;
191 -> 201 ;
202 [label="X[0] <= 4.5\nentropy = 1.392\nsamples = 41\nvalue = [9, 8, 24]"] ;
176 -> 202 ;
203 [label="X[2] <= 3.5\nentropy = 1.027\nsamples = 28\nvalue = [5, 2, 21]"] ;
202 -> 203 ;
204 [label="X[3] <= 4.5\nentropy = 1.557\nsamples = 7\nvalue = [2, 2, 3]"] ;
203 -> 204 ;
205 [label="X[0] <= 3.5\nentropy = 0.918\nsamples = 3\nvalue = [1, 2, 0]"] ;
204 -> 205 ;
206 [label="X[1] <= 4.5\nentropy = 1.0\nsamples = 2\nvalue = [1, 1, 0]"] ;
205 -> 206 ;
207 [label="entropy = 0.0\nsamples = 1\nvalue = [1, 0, 0]"] ;
206 -> 207 ;
208 [label="entropy = 0.0\nsamples = 1\nvalue = [0, 1, 0]"] ;
206 -> 208 ;
209 [label="entropy = 0.0\nsamples = 1\nvalue = [0, 1, 0]"] ;
205 -> 209 ;
210 [label="X[1] <= 4.5\nentropy = 0.811\nsamples = 4\nvalue = [1, 0, 3]"] ;
204 -> 210 ;
211 [label="entropy = 0.0\nsamples = 3\nvalue = [0, 0, 3]"] ;
210 -> 211 ;
212 [label="entropy = 0.0\nsamples = 1\nvalue = [1, 0, 0]"] ;
210 -> 212 ;
213 [label="X[0] <= 3.5\nentropy = 0.592\nsamples = 21\nvalue = [3, 0, 18]"] ;
203 -> 213 ;
214 [label="entropy = 0.0\nsamples = 11\nvalue = [0, 0, 11]"] ;
213 -> 214 ;
215 [label="X[1] <= 4.5\nentropy = 0.881\nsamples = 10\nvalue = [3, 0, 7]"] ;
213 -> 215 ;
216 [label="X[1] <= 3.5\nentropy = 0.544\nsamples = 8\nvalue = [1, 0, 7]"] ;
215 -> 216 ;
217 [label="entropy = 0.0\nsamples = 4\nvalue = [0, 0, 4]"] ;
216 -> 217 ;
218 [label="X[3] <= 4.5\nentropy = 0.811\nsamples = 4\nvalue = [1, 0, 3]"] ;
216 -> 218 ;
219 [label="X[2] <= 4.5\nentropy = 1.0\nsamples = 2\nvalue = [1, 0, 1]"] ;
218 -> 219 ;
220 [label="entropy = 0.0\nsamples = 1\nvalue = [1, 0, 0]"] ;
219 -> 220 ;
221 [label="entropy = 0.0\nsamples = 1\nvalue = [0, 0, 1]"] ;
219 -> 221 ;
222 [label="entropy = 0.0\nsamples = 2\nvalue = [0, 0, 2]"] ;
218 -> 222 ;
223 [label="entropy = 0.0\nsamples = 2\nvalue = [2, 0, 0]"] ;
215 -> 223 ;
224 [label="X[2] <= 4.5\nentropy = 1.526\nsamples = 13\nvalue = [4, 6, 3]"] ;
202 -> 224 ;
225 [label="X[1] <= 3.5\nentropy = 1.224\nsamples = 9\nvalue = [2, 6, 1]"] ;
224 -> 225 ;
226 [label="X[2] <= 3.5\nentropy = 1.0\nsamples = 2\nvalue = [1, 0, 1]"] ;
225 -> 226 ;
227 [label="entropy = 0.0\nsamples = 1\nvalue = [1, 0, 0]"] ;
226 -> 227 ;
228 [label="entropy = 0.0\nsamples = 1\nvalue = [0, 0, 1]"] ;
226 -> 228 ;
229 [label="X[1] <= 4.5\nentropy = 0.592\nsamples = 7\nvalue = [1, 6, 0]"] ;
225 -> 229 ;
230 [label="X[2] <= 3.5\nentropy = 0.918\nsamples = 3\nvalue = [1, 2, 0]"] ;
229 -> 230 ;
231 [label="entropy = 0.0\nsamples = 1\nvalue = [0, 1, 0]"] ;
230 -> 231 ;
232 [label="X[3] <= 4.5\nentropy = 1.0\nsamples = 2\nvalue = [1, 1, 0]"] ;
230 -> 232 ;
233 [label="entropy = 0.0\nsamples = 1\nvalue = [0, 1, 0]"] ;
232 -> 233 ;
234 [label="entropy = 0.0\nsamples = 1\nvalue = [1, 0, 0]"] ;
232 -> 234 ;
235 [label="entropy = 0.0\nsamples = 4\nvalue = [0, 4, 0]"] ;
229 -> 235 ;
236 [label="X[1] <= 3.5\nentropy = 1.0\nsamples = 4\nvalue = [2, 0, 2]"] ;
224 -> 236 ;
237 [label="entropy = 0.0\nsamples = 1\nvalue = [0, 0, 1]"] ;
236 -> 237 ;
238 [label="X[1] <= 4.5\nentropy = 0.918\nsamples = 3\nvalue = [2, 0, 1]"] ;
236 -> 238 ;
239 [label="X[3] <= 4.5\nentropy = 1.0\nsamples = 2\nvalue = [1, 0, 1]"] ;
238 -> 239 ;
240 [label="entropy = 0.0\nsamples = 1\nvalue = [1, 0, 0]"] ;
239 -> 240 ;
241 [label="entropy = 0.0\nsamples = 1\nvalue = [0, 0, 1]"] ;
239 -> 241 ;
242 [label="entropy = 0.0\nsamples = 1\nvalue = [1, 0, 0]"] ;
238 -> 242 ;
}